Language model created by QuickLM on Thu Sep 19 06:10:43 EDT 2019
Copyright (c) 1996-2010 Carnegie Mellon University and Alexander I. Rudnicky

The model is in standard ARPA format, designed by Doug Paul while he was at MITRE.

The code that was used to produce this language model is available in Open Source.
Please visit http://www.speech.cs.cmu.edu/tools/ for more information

The (fixed) discount mass is 0.5. The backoffs are computed using the ratio method.
This model based on a corpus of 13 sentences and 27 words

\data\
ngram 1=27
ngram 2=39
ngram 3=30

\1-grams:
-0.9353 </s> -0.3010
-0.9353 <s> -0.2474
-2.0492 APPOINTMENT -0.2932
-2.0492 CALL -0.2932
-2.0492 DHA -0.2474
-1.7482 DHAANNA -0.2474
-1.7482 EKAK -0.2892
-1.7482 GAENA -0.2932
-2.0492 GANNA -0.2474
-2.0492 HOYANNA -0.2474
-2.0492 KAALAGUNAYA -0.2932
-2.0492 KIIYADHA -0.2474
-2.0492 KOCHCHARA -0.2971
-1.7482 KOHOMADHA -0.2474
-2.0492 MESSAGE -0.2932
-2.0492 MOKAKDHA -0.2474
-2.0492 NAMA -0.2971
-2.0492 OYAATA -0.2932
-2.0492 PANIWIDAYAK -0.2932
-2.0492 SINDHUWAK -0.2932
-2.0492 SOYANNA -0.2474
-2.0492 VIKII -0.2474
-2.0492 WAYASA -0.2971
-2.0492 WELAA -0.2971
-2.0492 YANNA -0.2971
-1.7482 YAWANNA -0.2474
-2.0492 YAYI -0.2971

\2-grams:
-1.4150 <s> APPOINTMENT 0.0000
-1.4150 <s> CALL 0.0000
-1.1139 <s> GAENA 0.0000
-1.4150 <s> KAALAGUNAYA 0.0000
-1.4150 <s> MESSAGE 0.0000
-1.4150 <s> NAMA 0.0000
-1.4150 <s> OYAATA 0.0000
-1.4150 <s> PANIWIDAYAK 0.0000
-1.4150 <s> SINDHUWAK 0.0000
-1.4150 <s> VIKII 0.0000
-1.4150 <s> WAYASA 0.0000
-1.4150 <s> YANNA 0.0000
-0.3010 APPOINTMENT EKAK -0.1761
-0.3010 CALL EKAK -0.1761
-0.3010 DHA </s> -0.3010
-0.3010 DHAANNA </s> -0.3010
-0.6021 EKAK DHAANNA 0.0000
-0.6021 EKAK GANNA 0.0000
-0.6021 GAENA HOYANNA 0.0000
-0.6021 GAENA SOYANNA 0.0000
-0.3010 GANNA </s> -0.3010
-0.3010 HOYANNA </s> -0.3010
-0.3010 KAALAGUNAYA KOHOMADHA 0.0000
-0.3010 KIIYADHA </s> -0.3010
-0.3010 KOCHCHARA WELAA 0.0000
-0.3010 KOHOMADHA </s> -0.3010
-0.3010 MESSAGE YAWANNA 0.0000
-0.3010 MOKAKDHA </s> -0.3010
-0.3010 NAMA MOKAKDHA 0.0000
-0.3010 OYAATA KOHOMADHA 0.0000
-0.3010 PANIWIDAYAK YAWANNA 0.0000
-0.3010 SINDHUWAK DHAANNA 0.0000
-0.3010 SOYANNA </s> -0.3010
-0.3010 VIKII </s> -0.3010
-0.3010 WAYASA KIIYADHA 0.0000
-0.3010 WELAA YAYI 0.0000
-0.3010 YANNA KOCHCHARA 0.0000
-0.3010 YAWANNA </s> -0.3010
-0.3010 YAYI DHA 0.0000

\3-grams:
-0.3010 <s> APPOINTMENT EKAK
-0.3010 <s> CALL EKAK
-0.6021 <s> GAENA HOYANNA
-0.6021 <s> GAENA SOYANNA
-0.3010 <s> KAALAGUNAYA KOHOMADHA
-0.3010 <s> MESSAGE YAWANNA
-0.3010 <s> NAMA MOKAKDHA
-0.3010 <s> OYAATA KOHOMADHA
-0.3010 <s> PANIWIDAYAK YAWANNA
-0.3010 <s> SINDHUWAK DHAANNA
-0.3010 <s> VIKII </s>
-0.3010 <s> WAYASA KIIYADHA
-0.3010 <s> YANNA KOCHCHARA
-0.3010 APPOINTMENT EKAK DHAANNA
-0.3010 CALL EKAK GANNA
-0.3010 EKAK DHAANNA </s>
-0.3010 EKAK GANNA </s>
-0.3010 GAENA HOYANNA </s>
-0.3010 GAENA SOYANNA </s>
-0.3010 KAALAGUNAYA KOHOMADHA </s>
-0.3010 KOCHCHARA WELAA YAYI
-0.3010 MESSAGE YAWANNA </s>
-0.3010 NAMA MOKAKDHA </s>
-0.3010 OYAATA KOHOMADHA </s>
-0.3010 PANIWIDAYAK YAWANNA </s>
-0.3010 SINDHUWAK DHAANNA </s>
-0.3010 WAYASA KIIYADHA </s>
-0.3010 WELAA YAYI DHA
-0.3010 YANNA KOCHCHARA WELAA
-0.3010 YAYI DHA </s>

\end\
